{"model_data": {"model": "SimpleRNN", "input_size": 2, "skip": 1, "output_size": 1, "unit_type": "LSTM", "num_layers": 1, "hidden_size": 20, "bias_fl": true}, "state_dict": {"rec.weight_ih_l0": [[-0.011556441895663738, -0.029431169852614403], [0.1308698058128357, 0.07355717569589615], [0.016554633155465126, 0.039407625794410706], [-0.029668664559721947, 0.007048298139125109], [0.062404531985521317, 0.1817970871925354], [0.00556159345433116, 0.13838925957679749], [0.05962473526597023, 0.04807243496179581], [0.046206433326005936, -0.020549891516566277], [0.025851259008049965, -0.02577127516269684], [0.10405722260475159, 0.019063960760831833], [0.06465132534503937, 0.10985157638788223], [0.10357734560966492, 0.016946714371442795], [-0.6941215395927429, -0.016724666580557823], [-0.13763892650604248, 0.03131919726729393], [0.041241563856601715, -0.01372178178280592], [0.07793772220611572, -0.009099946357309818], [0.04794454947113991, 0.5193108320236206], [0.03683199733495712, 0.013127573765814304], [-0.14231769740581512, 0.30699625611305237], [0.04142778366804123, -0.04224838688969612], [-0.009251811541616917, -0.021854445338249207], [0.1652962863445282, 0.08550804853439331], [0.011344159953296185, 0.06172655522823334], [-0.02771947905421257, 0.030352376401424408], [0.08748640865087509, 0.19367626309394836], [-0.06427812576293945, 0.18358822166919708], [0.06654233485460281, 0.07241108268499374], [0.05172222852706909, -0.013413498178124428], [0.02999303489923477, -0.011718608438968658], [0.1212286651134491, 0.042522232979536057], [0.080417700111866, 0.11722837388515472], [0.12083744257688522, 0.036464277654886246], [0.08387450873851776, 0.9223044514656067], [-0.18797270953655243, 0.3040750026702881], [0.046378329396247864, -0.007446019910275936], [0.08711258322000504, 0.012059426866471767], [0.003757530590519309, 0.4450798034667969], [0.046047087758779526, 0.01792457327246666], [-0.31361937522888184, 0.820327877998352], [0.042719949036836624, -0.024791458621621132], [-0.08075539022684097, 0.027723679319024086], [0.09150972962379456, -0.1254451423883438], [0.09301158785820007, -0.14308995008468628], [0.0772603452205658, 0.030761798843741417], [0.19758568704128265, -0.13808581233024597], [1.4102953672409058, -0.04850730299949646], [-0.25684911012649536, 0.13267897069454193], [0.11667118221521378, -0.026933779940009117], [0.6016786694526672, -0.09916220605373383], [0.16199855506420135, -0.05925517529249191], [0.04807223007082939, -0.0848631039261818], [-0.18305867910385132, 0.06172739341855049], [0.6721466183662415, 0.06925196200609207], [-0.017523417249321938, 0.2538676857948303], [-0.13731493055820465, 0.01776578277349472], [-0.13401207327842712, 0.042540229856967926], [2.0160703659057617, 0.11712971329689026], [-0.030591946095228195, 0.07175849378108978], [1.3342781066894531, -0.022015808150172234], [0.09633655846118927, -0.06949864327907562], [-0.012306074611842632, -0.029706383123993874], [0.1337824910879135, 0.07469439506530762], [0.011590351350605488, 0.04027089849114418], [-0.027211366221308708, 0.0063864863477647305], [0.08182298392057419, 0.1826067715883255], [-0.01426518615335226, 0.12660108506679535], [0.05555092543363571, 0.049036167562007904], [0.04411181062459946, -0.02036801166832447], [0.03027220070362091, -0.025805838406085968], [0.0970660001039505, 0.021063009276986122], [0.06672056764364243, 0.1094508171081543], [0.09837076812982559, 0.01819123700261116], [0.0006973108975216746, 0.10991515219211578], [-0.26119235157966614, 0.05674118176102638], [0.039160266518592834, -0.013461104594171047], [0.07242484390735626, -0.008546130731701851], [0.031708456575870514, 0.4058580696582794], [0.03886735811829567, 0.013684465549886227], [-0.13491307199001312, 0.3100067675113678], [0.03822579234838486, -0.04187844321131706]], "rec.weight_hh_l0": [[0.006107672583311796, -0.011152800172567368, -0.005765173118561506, 0.0073224944062530994, -0.010809524916112423, -0.002233434934169054, 0.009548570029437542, -0.007069973740726709, -0.010634735226631165, -0.012100893072783947, -0.011449513025581837, 0.011990267783403397, 0.018894510343670845, -0.004634878598153591, 0.0057094101794064045, 0.004134011920541525, -0.006623914465308189, 0.00801105611026287, -0.004577921703457832, -0.00471038231626153], [-0.007748233620077372, 0.07785230129957199, 0.044443901628255844, 0.0022434296552091837, -0.035288043320178986, 0.03324512764811516, -0.056087903678417206, 0.03212899714708328, 0.03901156783103943, 0.06869344413280487, 0.03825811669230461, -0.0642118826508522, 0.05145072191953659, 0.1038767620921135, -0.03022618219256401, -0.059145621955394745, 0.004075944423675537, -0.04659540578722954, 0.0037223808467388153, 0.034903619438409805], [-0.03060516156256199, 0.08826889097690582, 0.07839781790971756, -0.03699712082743645, 0.02801995724439621, 0.039969466626644135, -0.082974374294281, 0.03838630020618439, 0.052247580140829086, 0.06348319351673126, 0.06090822070837021, -0.058825358748435974, 0.009606504812836647, 0.014103098772466183, -0.03447959944605827, -0.018253520131111145, -0.027559809386730194, -0.06497576832771301, -0.09150490909814835, 0.05185985192656517], [0.023735392838716507, -0.050789330154657364, -0.03513011336326599, 0.02577458694577217, -0.06412205845117569, 0.004258860368281603, 0.04967050999403, -0.03227561339735985, -0.04023069515824318, -0.05565457418560982, -0.056337375193834305, 0.05385053530335426, 0.04398466646671295, 0.009374641813337803, 0.028547747060656548, 0.025030052289366722, -0.00986907072365284, 0.038325559347867966, -0.030122466385364532, -0.025758694857358932], [-0.0038831669371575117, -0.09349590539932251, -0.050749875605106354, 0.009361590258777142, -0.06679723411798477, 0.02609768509864807, 0.05303320661187172, -0.007407508324831724, -0.029667530208826065, -0.03965327516198158, -0.03797907382249832, 0.038110870867967606, 0.18184903264045715, 0.11568143218755722, 0.003634924767538905, 0.012882420793175697, 0.06387704610824585, 0.05099176988005638, 0.07860982418060303, -0.012466720305383205], [-0.008298615925014019, 0.09590557217597961, 0.10995250195264816, -0.039433278143405914, 0.04829766973853111, 0.058340128511190414, -0.11182162910699844, 0.030204780399799347, 0.04290129616856575, 0.06271494179964066, 0.10162517428398132, -0.05596531555056572, 0.26272454857826233, 0.06587197631597519, -0.01687108911573887, -0.036539025604724884, 0.05749154090881348, -0.07523057609796524, 0.15230520069599152, 0.06612600386142731], [-0.022701531648635864, 0.08720789104700089, 0.06526923924684525, -0.025810981169342995, 0.008680217899382114, 0.027053670957684517, -0.0715862438082695, 0.04269743338227272, 0.04982098937034607, 0.07205609232187271, 0.054215505719184875, -0.06863034516572952, 0.02567441575229168, 0.0504620335996151, -0.03791848197579384, -0.03925338387489319, -0.014138455502688885, -0.061393145471811295, -0.047559257596731186, 0.048290420323610306], [-0.015284113585948944, 0.04439998418092728, 0.037706922739744186, -0.012655614875257015, 0.025487402454018593, 0.023430192843079567, -0.044433385133743286, 0.02729584090411663, 0.02934124879539013, 0.04357314482331276, 0.03488020598888397, -0.04137979820370674, 0.033181630074977875, 0.005413263104856014, -0.026041066274046898, -0.02732727862894535, 0.030276218429207802, -0.03161676973104477, 0.011609600856900215, 0.029931019991636276], [0.02244778908789158, -0.01652957685291767, -0.024480776861310005, 0.030814502388238907, -0.04510270804166794, -0.0016556800110265613, 0.024408133700489998, -0.017128953710198402, -0.023202447220683098, -0.020463189110159874, -0.03332017362117767, 0.021141178905963898, 0.03671708703041077, 0.03650767356157303, 0.01439591869711876, -0.0011866884306073189, 0.009164970368146896, 0.023571403697133064, 0.01986178196966648, -0.019750850275158882], [-0.024705033749341965, 0.09210694581270218, 0.07206989079713821, -0.01660170778632164, 0.0341799259185791, 0.03020288422703743, -0.08839742839336395, 0.06193193048238754, 0.06122587248682976, 0.09794669598340988, 0.07836563885211945, -0.09478649497032166, 0.04268546774983406, 0.0601162388920784, -0.056502681225538254, -0.0823005884885788, 0.04242994263768196, -0.06704217940568924, 0.06391306221485138, 0.060374580323696136], [-0.007197586819529533, 0.02093007229268551, 0.011393719352781773, 0.000412897439673543, -0.03140316903591156, 0.026001015678048134, -0.00351829850114882, 0.020300820469856262, 0.013846728019416332, 0.03017893061041832, -0.004225675016641617, -0.029068676754832268, 0.06678608804941177, 0.04819917306303978, -0.020785242319107056, -0.025967063382267952, 0.03172007203102112, -0.023170828819274902, 0.04620863497257233, 0.024656260386109352], [-0.019328830763697624, 0.0826670452952385, 0.06223815679550171, -0.010591475293040276, 0.027678024023771286, 0.0338951051235199, -0.07850460708141327, 0.05491498112678528, 0.05381167680025101, 0.08767593652009964, 0.06608626246452332, -0.0844162181019783, 0.04366754740476608, 0.05559060722589493, -0.05058318004012108, -0.07558877021074295, 0.04920230060815811, -0.05784441903233528, 0.059142597019672394, 0.053017910569906235], [-0.045588403940200806, -0.011778734624385834, -0.04094498232007027, -0.11180374026298523, 0.08103904128074646, -0.23994292318820953, 0.053027860820293427, -0.03525147587060928, -0.051643259823322296, -0.08528823405504227, 0.01738041266798973, 0.06816716492176056, 0.13910654187202454, -0.39756035804748535, 0.07629820704460144, 0.15160991251468658, -0.44876086711883545, -0.01319082546979189, -0.8676621913909912, -0.060921888798475266], [0.014539088122546673, 0.11677557975053787, 0.010516157373785973, -0.001194302341900766, 0.14255525171756744, -0.2471691071987152, 0.006800649221986532, 0.012937836349010468, 0.005471911281347275, 0.05492966249585152, 0.0912434309720993, -0.04844451695680618, -0.1277763694524765, 0.09927734732627869, -0.004906207788735628, -0.03034372627735138, -0.27149510383605957, -0.06640555709600449, 0.4052564799785614, 0.022937024012207985], [-0.015464253723621368, 0.04693368822336197, 0.03929707780480385, -0.013027064502239227, 0.013848835602402687, 0.0227962639182806, -0.04505632817745209, 0.02701658383011818, 0.029645545408129692, 0.043434370309114456, 0.03229717165231705, -0.04087311029434204, 0.03541888669133186, 0.01602226309478283, -0.025859469547867775, -0.025493428111076355, 0.02570156194269657, -0.03290552645921707, 0.0038320464082062244, 0.03071044385433197], [-0.002894412958994508, 0.06888891011476517, 0.04156830534338951, 0.0043197679333388805, 0.01419998798519373, 0.015455399639904499, -0.06302140653133392, 0.04681415110826492, 0.04098130390048027, 0.07914330810308456, 0.05521522834897041, -0.07582010328769684, 0.04410865530371666, 0.031434066593647, -0.04164237156510353, -0.05678040534257889, 0.052925001829862595, -0.046096403151750565, 0.05143440514802933, 0.04004475101828575], [-0.014603368006646633, 0.05989844352006912, 0.04202893376350403, -0.018719634041190147, -0.0034571706783026457, 0.01793394237756729, -0.0801524966955185, 0.05691990256309509, 0.05780380591750145, 0.10674476623535156, 0.07263568788766861, -0.09909764677286148, 0.17229630053043365, 0.13207678496837616, -0.041184838861227036, -0.07772306352853775, 0.14824742078781128, -0.05263939127326012, 0.3004514276981354, 0.048672743141651154], [-0.002459957730025053, 0.028127260506153107, 0.017888693138957024, 0.0016466311644762754, 0.0006058653816580772, 0.019607555121183395, -0.022047732025384903, 0.006910052616149187, 0.009564448148012161, 0.017568187788128853, 0.011884238570928574, -0.015065359883010387, 0.020367437973618507, 0.031176183372735977, -0.006647683680057526, -0.011716507375240326, 0.01313150767236948, -0.012610252946615219, -0.01686904951930046, 0.010476027615368366], [-0.08973086625337601, 0.21539093554019928, 0.2358953356742859, -0.12465058267116547, 0.2245507389307022, -0.0791100263595581, -0.2439863085746765, 0.07441163063049316, 0.09258826822042465, 0.14595893025398254, 0.23852989077568054, -0.11825860291719437, 0.04513012245297432, -0.0731336697936058, -0.06952738761901855, -0.046484846621751785, -0.25744208693504333, -0.11291234195232391, -0.34777891635894775, 0.068490169942379], [-0.017271308228373528, 0.05176052451133728, 0.04663022235035896, -0.01586218737065792, 0.03575313836336136, 0.016754793003201485, -0.05339164659380913, 0.02712024748325348, 0.03003476932644844, 0.04342949017882347, 0.04091622680425644, -0.04036157950758934, 0.022696638479828835, -0.001217503217048943, -0.024937916547060013, -0.019505124539136887, 0.02039048634469509, -0.03531080111861229, -0.013539624400436878, 0.03126688301563263], [0.005499405786395073, -0.01068809162825346, -0.005196332465857267, 0.00734083354473114, -0.01276206411421299, -0.000101484329206869, 0.008820773102343082, -0.006593042518943548, -0.009829794056713581, -0.01168957818299532, -0.01182596292346716, 0.011731927283108234, 0.016678720712661743, -0.0011570228962227702, 0.005055289249867201, 0.004085879772901535, -0.0045899986289441586, 0.007856663316488266, -0.00797660369426012, -0.004151549190282822], [-0.005270998924970627, 0.090993233025074, 0.05348221957683563, 0.0060272510163486, -0.04832673817873001, 0.04214215278625488, -0.06607820093631744, 0.03999693691730499, 0.04868036508560181, 0.08359535038471222, 0.041935522109270096, -0.07866588979959488, 0.07012221962213516, 0.11739787459373474, -0.03765661641955376, -0.07983404397964478, 0.0010052657453343272, -0.05696303769946098, 0.004183253273367882, 0.0446171760559082], [-0.03875373303890228, 0.10255874693393707, 0.09161506593227386, -0.046404264867305756, 0.018443794921040535, 0.05016034096479416, -0.09555529057979584, 0.0462341383099556, 0.06332843750715256, 0.07462428510189056, 0.06829851865768433, -0.06938745826482773, 0.007895073853433132, 0.028758928179740906, -0.04164614900946617, -0.021120207384228706, -0.04008595645427704, -0.07758577913045883, -0.10793400555849075, 0.0625339150428772], [0.02362942136824131, -0.04451319947838783, -0.03295442461967468, 0.0256749726831913, -0.07147737592458725, 0.004594898317009211, 0.047415878623723984, -0.030946537852287292, -0.03844171389937401, -0.05147495120763779, -0.055211976170539856, 0.050085362046957016, 0.04599669203162193, 0.029527226462960243, 0.027291959151625633, 0.022657180204987526, -0.01311709824949503, 0.0349268838763237, -0.030594008043408394, -0.02348724938929081], [0.0009081008611246943, -0.1086418628692627, -0.08145620673894882, 0.00461578369140625, -0.07491732388734818, 0.017770636826753616, 0.0729026272892952, -0.007376245688647032, -0.044360801577568054, -0.04852293059229851, -0.045446593314409256, 0.0454254113137722, 0.2300264984369278, 0.13172371685504913, 0.005078920628875494, 0.01913532242178917, 0.06950782239437103, 0.06643835455179214, 0.10117750614881516, -0.024963755160570145], [-0.024694908410310745, 0.0627860277891159, 0.11724916845560074, -0.05092676728963852, 0.04890059307217598, 0.04804828390479088, -0.10903733968734741, 0.025429334491491318, 0.0356510765850544, 0.02643895521759987, 0.09309805929660797, -0.01738101989030838, 0.28058600425720215, 0.03345606103539467, -0.02017262391746044, 0.005884014535695314, 0.017977610230445862, -0.0601314976811409, 0.030784931033849716, 0.07409650087356567], [-0.027513202279806137, 0.1002182736992836, 0.07594390958547592, -0.030150756239891052, -0.002342429244890809, 0.038464371114969254, -0.08184236288070679, 0.05091267451643944, 0.059882260859012604, 0.08392471075057983, 0.05845605209469795, -0.07999928295612335, 0.02929743006825447, 0.06527886539697647, -0.045600246638059616, -0.04811808466911316, -0.01921909675002098, -0.07236503064632416, -0.06643135845661163, 0.05833403021097183], [-0.016517873853445053, 0.048345718532800674, 0.040895815938711166, -0.01346153300255537, 0.02584642730653286, 0.026063840836286545, -0.048223014920949936, 0.030213812366127968, 0.03217415511608124, 0.04743899405002594, 0.038010742515325546, -0.0451391227543354, 0.0379478745162487, 0.010313054546713829, -0.028848329558968544, -0.030936531722545624, 0.033693354576826096, -0.03443894907832146, 0.010291684418916702, 0.03281183913350105], [0.02283608913421631, -0.022306902334094048, -0.026925742626190186, 0.034028928726911545, -0.04923554137349129, 0.0017368558328598738, 0.027393648400902748, -0.017066417261958122, -0.02433430776000023, -0.023384781554341316, -0.037723686546087265, 0.023963073268532753, 0.03815286606550217, 0.03202325850725174, 0.013471768237650394, -0.0016499568009749055, 0.017194557934999466, 0.027245229110121727, 0.010794122703373432, -0.020108535885810852], [-0.028059830889105797, 0.10895443707704544, 0.08573481440544128, -0.017703773453831673, 0.022397926077246666, 0.039078328758478165, -0.10269101709127426, 0.07520029693841934, 0.07438438385725021, 0.11551324278116226, 0.08934798091650009, -0.11195026338100433, 0.059170909225940704, 0.08205604553222656, -0.06934385746717453, -0.09989198297262192, 0.04584064334630966, -0.08162321895360947, 0.06578325480222702, 0.07498504221439362], [-0.0039922925643622875, 0.021212389692664146, 0.007685900200158358, 0.006183853838592768, -0.033276014029979706, 0.03126341477036476, 0.0013941193465143442, 0.022039294242858887, 0.01214542519301176, 0.033869147300720215, -0.008315454237163067, -0.032590415328741074, 0.08597487211227417, 0.05438344180583954, -0.023260924965143204, -0.0331035815179348, 0.03956258296966553, -0.0253143310546875, 0.05389126390218735, 0.028361311182379723], [-0.021585168316960335, 0.09712125360965729, 0.07374628633260727, -0.010218404233455658, 0.01892923191189766, 0.04332311823964119, -0.09121784567832947, 0.06617311388254166, 0.06508360058069229, 0.10282976180315018, 0.07543905079364777, -0.09908336400985718, 0.058725181967020035, 0.0734235867857933, -0.06160731613636017, -0.09073685854673386, 0.05488166585564613, -0.06970982998609543, 0.06087462231516838, 0.06527681648731232], [0.020069923251867294, 0.23779049515724182, 0.18910835683345795, -0.09383215010166168, 0.2312302440404892, 0.060499273240566254, -0.1348637342453003, -0.006518344394862652, 0.07635413110256195, 0.0885942131280899, 0.21958228945732117, -0.09821374714374542, 0.4212954044342041, 0.6473725438117981, 0.06009933352470398, -0.04957032948732376, -0.22120796144008636, -0.1591467261314392, 0.11900440603494644, 0.08751390129327774], [0.002946494845673442, 0.13422000408172607, 0.024535005912184715, -0.017452839761972427, 0.11310872435569763, -0.2682337164878845, 0.014696518890559673, 0.021433232352137566, 0.006711588706821203, 0.06095614284276962, 0.08313795924186707, -0.05529620125889778, -0.1562526822090149, 0.1533185988664627, -0.014520755968987942, -0.022204121574759483, -0.33073946833610535, -0.08127503097057343, 0.39897477626800537, 0.03601297363638878], [-0.01690373197197914, 0.05070658028125763, 0.04256128519773483, -0.013963810168206692, 0.015000450424849987, 0.02494504489004612, -0.04903081804513931, 0.030223514884710312, 0.032577529549598694, 0.04736288636922836, 0.03595079854130745, -0.04476421698927879, 0.03944888338446617, 0.01940033957362175, -0.02890288271009922, -0.029181497171521187, 0.029204854741692543, -0.03570973873138428, 0.0020492193289101124, 0.03357773646712303], [-0.0035738484002649784, 0.08075574040412903, 0.049428559839725494, 0.005100721959024668, 0.0066108121536672115, 0.02105945162475109, -0.07188621163368225, 0.05506276711821556, 0.04857851564884186, 0.09018192440271378, 0.06125853955745697, -0.08645420521497726, 0.05200827866792679, 0.04666575416922569, -0.04949140176177025, -0.06525861471891403, 0.05627480894327164, -0.054968345910310745, 0.05213038623332977, 0.048669278621673584], [-0.004651406779885292, -0.01194585021585226, -0.023028498515486717, -0.004979256074875593, 0.02923152595758438, 0.028767263516783714, -0.019919320940971375, 0.00693546375259757, 0.022172661498188972, 0.028314577415585518, 0.04526776820421219, -0.024739941582083702, 0.13348276913166046, -0.04191102460026741, 0.0007706033065915108, -0.014378253370523453, 0.1568552702665329, 0.0042521036230027676, 0.073820561170578, -0.014126167632639408], [-0.002899342915043235, 0.03250303119421005, 0.020929839462041855, 0.002353234449401498, -0.0035724537447094917, 0.023454030975699425, -0.0255880244076252, 0.008553987368941307, 0.01238740049302578, 0.021379832178354263, 0.013552884571254253, -0.01848149299621582, 0.024040140211582184, 0.03700016438961029, -0.00845714658498764, -0.014632347039878368, 0.014907841570675373, -0.015397196635603905, -0.01851385459303856, 0.012975919991731644], [-0.06272975355386734, 0.23509109020233154, 0.2023378163576126, -0.15119770169258118, 0.119016133248806, 0.06501070410013199, -0.13149628043174744, 0.06212665140628815, 0.06045006588101387, 0.13318893313407898, 0.18336710333824158, -0.09829989075660706, 0.09817012399435043, 0.217552050948143, -0.07126201689243317, -0.02357860468327999, -0.4635283648967743, -0.1552441418170929, -0.6291580200195312, 0.09142372757196426], [-0.01959024928510189, 0.057231493294239044, 0.051416728645563126, -0.018453560769557953, 0.03442656621336937, 0.020519979298114777, -0.058403801172971725, 0.029412005096673965, 0.033555999398231506, 0.04711981117725372, 0.04439527168869972, -0.04369214177131653, 0.023240599781274796, 0.0040086111985147, -0.027059579268097878, -0.02063599042594433, 0.02023611031472683, -0.039273738861083984, -0.020989883691072464, 0.03450123965740204], [-0.013247382827103138, -0.0362275205552578, -0.05343387648463249, -0.005604787729680538, -0.05896155163645744, -0.07631975412368774, 0.06418309360742569, -0.0035628227051347494, -0.028777552768588066, -0.02501564286649227, -0.03516747057437897, 0.018497833982110023, -0.012663974426686764, 0.029375210404396057, 0.0015316078206524253, 0.01683390885591507, 0.005504770670086145, 0.03333520144224167, 0.10235583037137985, -0.0366327129304409], [-0.009454678744077682, 0.14843344688415527, 0.17281225323677063, -0.05886179581284523, 0.06048199161887169, 0.030232727527618408, -0.14823944866657257, 0.05299621447920799, 0.08849227428436279, 0.10346078872680664, 0.07217543572187424, -0.09737253934144974, -0.0728592798113823, 0.029970776289701462, -0.03554911911487579, -0.06755294650793076, -0.08945219218730927, -0.09433520585298538, 0.020845966413617134, 0.07645899802446365], [-0.04528234153985977, 0.08211569488048553, 0.08791781216859818, -0.06744139641523361, -0.039153989404439926, 0.1361028403043747, -0.07551439851522446, 0.04974161460995674, 0.03829514980316162, 0.04581644758582115, 0.03639925643801689, -0.0656079426407814, 0.05540886148810387, -0.11795078963041306, -0.044211067259311676, -0.009338587522506714, 0.05844186991453171, -0.07059436291456223, -0.05416104942560196, 0.05651205778121948], [0.03453756868839264, -0.0668405145406723, -0.06290815770626068, 0.03933030366897583, -0.11708836257457733, 0.022405223920941353, 0.08254201710224152, -0.010954218916594982, -0.0461047887802124, -0.0419561006128788, -0.1059441864490509, 0.03605305776000023, -0.047269996255636215, 0.05460961163043976, 0.011045372113585472, -0.017999785020947456, 0.14988917112350464, 0.06047922000288963, 0.0717599168419838, -0.04045824334025383], [0.020277464762330055, 0.21040531992912292, 0.1168447732925415, 0.10250025987625122, 0.16376854479312897, -0.008991232141852379, -0.09336823970079422, -0.026182426139712334, 0.0896526426076889, 0.1399427056312561, 0.12504835426807404, -0.14293532073497772, -0.12836088240146637, 0.03033153899013996, 0.029408546164631844, -0.15504148602485657, -0.02676902711391449, -0.14398908615112305, -0.08113386482000351, 0.08181377500295639], [0.007877281866967678, -0.045346107333898544, 0.027781156823039055, -0.04201069474220276, -0.1688268482685089, 0.0011113673681393266, 0.14654023945331573, -0.03614732250571251, -0.1711769700050354, -0.05883650481700897, -0.05635242164134979, 0.06756895035505295, 0.2972010672092438, -0.08050493896007538, 0.03598008677363396, 0.06834400445222855, -0.14129763841629028, -0.02868896909058094, -0.5376908183097839, -0.0014617324341088533], [0.030217202380299568, -0.11392462253570557, -0.11803478002548218, 0.018960710614919662, -0.06913423538208008, -0.12451934814453125, 0.09266965091228485, -0.05222666636109352, -0.060367926955223083, -0.0997975766658783, -0.09342024475336075, 0.10491891950368881, -0.003979046363383532, 0.10766865313053131, 0.048251617699861526, 0.05995205417275429, -0.06628540903329849, 0.07409162074327469, 0.05089893564581871, -0.061225391924381256], [-0.015113947913050652, 0.04025214537978172, 0.035289112478494644, 0.021363290026783943, 0.04546690732240677, 0.04077957570552826, -0.049904320389032364, 0.03269164636731148, 0.02867729589343071, 0.07643131911754608, 0.04443037509918213, -0.07217632979154587, 0.0008502904674969614, -0.019160067662596703, -0.035414278507232666, -0.06278810650110245, 0.07160666584968567, -0.026270808652043343, 0.012486821040511131, 0.02935495227575302], [-0.012303872965276241, 0.08417070657014847, 0.07731733471155167, -0.022484557703137398, 0.04437661170959473, 0.007048864848911762, -0.05066175013780594, 0.01872353069484234, 0.005743084009736776, 0.051078759133815765, 0.06101427227258682, -0.05796550586819649, 0.03747418522834778, 0.1524839699268341, -0.013729432597756386, -0.031014053151011467, -0.08480974286794662, -0.05164287984371185, -0.225117489695549, 0.015336033888161182], [0.01799817383289337, 0.1325577050447464, 0.09226909279823303, 0.03533291071653366, 0.05095994099974632, 0.030476253479719162, -0.09502372145652771, 0.051131777465343475, 0.06375931948423386, 0.10212551057338715, 0.04428662732243538, -0.10031919926404953, -0.13539765775203705, -0.019269919022917747, -0.04095084220170975, -0.10104943811893463, 0.07275445014238358, -0.06793853640556335, 0.08518953621387482, 0.046684738248586655], [0.023822225630283356, 0.18214178085327148, 0.11933645606040955, 0.042144548147916794, 0.10330718755722046, -0.0022045644000172615, -0.08190124481916428, 0.012467662803828716, 0.06843624264001846, 0.11063587665557861, 0.08088330924510956, -0.10949829965829849, -0.08415528386831284, -0.02961149998009205, -0.0007906038081273437, -0.10880143940448761, -0.03142199665307999, -0.11623641103506088, 0.038126248866319656, 0.08082320541143417], [-0.007346002385020256, -0.1129675954580307, -0.07303015142679214, -0.014048301614820957, -0.045630861073732376, -0.009898027405142784, 0.08547110855579376, -0.05475417897105217, -0.05157072842121124, -0.10158520936965942, -0.04695498198270798, 0.09792890399694443, 0.12225214391946793, -0.012036430649459362, 0.05193379893898964, 0.09026605635881424, -0.04581604152917862, 0.05230765789747238, -0.07195169478654861, -0.028391094878315926], [0.04698335379362106, 0.054131779819726944, -0.06951933354139328, 0.045615069568157196, 0.06953443586826324, -0.13096976280212402, 0.018720442429184914, -0.023794326931238174, -0.005197622813284397, 0.04636290669441223, 0.07660384476184845, -0.039036381989717484, 0.47827231884002686, 0.17428070306777954, 0.039067868143320084, -0.015836823731660843, 0.08895058929920197, -0.04725096374750137, 0.43246564269065857, -0.014048644341528416], [0.06487549841403961, 0.02436218038201332, -0.1254229098558426, 0.06758883595466614, 0.1470535546541214, -0.5269522070884705, 0.09675917774438858, -0.024183010682463646, -0.06706802546977997, 0.033514298498630524, 0.08137304335832596, -0.02460591308772564, -0.25596681237220764, 0.14255155622959137, 0.03335551917552948, -0.0913214161992073, -0.28908470273017883, 0.016705799847841263, 0.5582454800605774, -0.07278434187173843], [0.011064117774367332, -0.030798165127635002, -0.042226724326610565, -0.03160284832119942, -0.021075110882520676, -0.05449151247739792, 0.04974812641739845, -0.0344388522207737, -0.026642177253961563, -0.06951406598091125, -0.025340422987937927, 0.06263211369514465, -0.005983090493828058, 0.027428606525063515, 0.035396184772253036, 0.06534601747989655, -0.09340474754571915, 0.02168179117143154, 0.005154633894562721, -0.04054637253284454], [-0.014666263945400715, -0.04230964183807373, -0.015714790672063828, -0.022551311179995537, 0.043406952172517776, 0.012722979299724102, 0.02517043426632881, -0.0509333461523056, -0.012247402220964432, -0.07196169346570969, 0.006827440578490496, 0.07575415074825287, 0.09862492978572845, -0.05650375783443451, 0.050472404807806015, 0.0724027007818222, -0.12546183168888092, 0.004793907515704632, -0.10009549558162689, -0.008275547064840794], [0.04852672666311264, -0.05845361948013306, -0.0065980334766209126, -0.04759248346090317, -0.11678639054298401, -0.04683404788374901, 0.14745643734931946, -0.014066296629607677, -0.15429875254631042, -0.06902509927749634, -0.0569487027823925, 0.05546652153134346, 0.16463421285152435, -0.2642562985420227, 0.015430617146193981, 0.0018987435614690185, -0.48289915919303894, 0.013024937361478806, -0.24617919325828552, -0.016146691516041756], [0.03468440845608711, -0.10960422456264496, -0.09159179776906967, 0.08297870308160782, -0.03305923938751221, -0.027269495651125908, 0.09882821887731552, -0.05222560837864876, -0.04900796338915825, -0.06187080591917038, -0.08082845062017441, 0.06715594232082367, 0.024686265736818314, 0.0638323649764061, 0.04595820978283882, 0.030072646215558052, 0.09809046983718872, 0.06511993706226349, -0.02582738548517227, -0.035010114312171936], [0.040831055492162704, -0.035202108323574066, -0.1258949488401413, -0.02383834682404995, 0.033759571611881256, -0.4857666492462158, 0.16789862513542175, -0.03183124586939812, -0.17822036147117615, -0.03834252431988716, 0.01861524023115635, 0.04633287712931633, -0.37348124384880066, 0.4987441301345825, 0.04148226976394653, 0.046042684465646744, -0.25901272892951965, 0.020607009530067444, 0.3149706721305847, -0.09741242974996567], [-0.03725934401154518, 0.07247734814882278, 0.06294960528612137, -0.05316484719514847, -0.041584521532058716, 0.10807919502258301, -0.05171562358736992, 0.04517512023448944, 0.024529241025447845, 0.05260320380330086, 0.017974605783820152, -0.0669577568769455, 0.08363838493824005, -0.05451425164937973, -0.037808068096637726, -0.02186576835811138, 0.09044310450553894, -0.05350276827812195, -0.04010694846510887, 0.031550876796245575], [0.006329832598567009, -0.01134225632995367, -0.006253441795706749, 0.0073728254064917564, -0.011143695563077927, -0.003394719446077943, 0.01015129592269659, -0.007481158711016178, -0.010949754156172276, -0.012577295303344727, -0.01176399365067482, 0.012433182448148727, 0.01849399320781231, -0.003695602063089609, 0.006146338302642107, 0.004538267385214567, -0.007936093956232071, 0.008195578120648861, -0.003979356028139591, -0.005113556049764156], [-0.00707792304456234, 0.07963024079799652, 0.04514945670962334, 0.0012402557767927647, -0.0371391698718071, 0.031200798228383064, -0.056286126375198364, 0.03281138092279434, 0.040091972798109055, 0.0700191780924797, 0.03893812745809555, -0.06575743108987808, 0.05620426684617996, 0.10734056681394577, -0.030367743223905563, -0.06160461902618408, -0.0006739967502653599, -0.048432957381010056, 0.0055174254812300205, 0.035941675305366516], [-0.030558444559574127, 0.09023681282997131, 0.0780886560678482, -0.03892139345407486, 0.026036875322461128, 0.03461655229330063, -0.08226814866065979, 0.03833955526351929, 0.05234062671661377, 0.06443184614181519, 0.061813198029994965, -0.060082729905843735, 0.006079509854316711, 0.020399369299411774, -0.03395683318376541, -0.01817048341035843, -0.03732358291745186, -0.06678549945354462, -0.090585857629776, 0.05168696865439415], [0.02340448647737503, -0.050456784665584564, -0.03468654677271843, 0.025933552533388138, -0.06329797953367233, 0.005967000965029001, 0.04878620430827141, -0.03190655633807182, -0.0395258367061615, -0.054893992841243744, -0.05578957870602608, 0.05318683013319969, 0.0438101701438427, 0.009305095300078392, 0.02808927185833454, 0.02485744282603264, -0.00874238833785057, 0.03814908117055893, -0.02800970897078514, -0.02509918063879013], [0.0004827152006328106, -0.0932106152176857, -0.05936744809150696, 0.011149638332426548, -0.07562344521284103, 0.01649089716374874, 0.06070280075073242, -0.004869460128247738, -0.03423218056559563, -0.037294238805770874, -0.043910782784223557, 0.03480331227183342, 0.18897351622581482, 0.12790824472904205, 0.0011665778001770377, 0.006901898887008429, 0.05403629690408707, 0.051678020507097244, 0.09604684263467789, -0.011616192758083344], [-0.005292377434670925, 0.09295874834060669, 0.10873134434223175, -0.04536135867238045, 0.04112309589982033, 0.027307122945785522, -0.10677508264780045, 0.026694828644394875, 0.03452393412590027, 0.05268238112330437, 0.0980081856250763, -0.046802256256341934, 0.25955232977867126, 0.07131682336330414, -0.012989702634513378, -0.028167258948087692, 0.020794017240405083, -0.0738995149731636, 0.14161480963230133, 0.06348403543233871], [-0.02296440489590168, 0.08989151567220688, 0.06605463474988937, -0.028031887486577034, 0.007280540652573109, 0.023995958268642426, -0.07187934964895248, 0.04301410913467407, 0.050767943263053894, 0.07344752550125122, 0.05540410056710243, -0.07022944837808609, 0.024739369750022888, 0.05527092143893242, -0.037773191928863525, -0.03909101337194443, -0.02205622009932995, -0.06380464136600494, -0.04679998382925987, 0.04911629483103752], [-0.015222548507153988, 0.04418984055519104, 0.03758266940712929, -0.013094671070575714, 0.025078268721699715, 0.022514814510941505, -0.04393294081091881, 0.026972776278853416, 0.02898942492902279, 0.04294489324092865, 0.0346742607653141, -0.04081001505255699, 0.03334769606590271, 0.006335048470646143, -0.025667322799563408, -0.026857858523726463, 0.028255436569452286, -0.03163154795765877, 0.011371864005923271, 0.029770588502287865], [0.023333823308348656, -0.017551343888044357, -0.02585143782198429, 0.03191954270005226, -0.045956049114465714, -0.0011872280156239867, 0.025531969964504242, -0.0182639192789793, -0.023548565804958344, -0.021413179114460945, -0.03461252525448799, 0.02211664617061615, 0.037455495446920395, 0.037555452436208725, 0.015457839705049992, -0.00023644215252716094, 0.01141039002686739, 0.024713044986128807, 0.022896895185112953, -0.02063991315662861], [-0.02517033740878105, 0.09448046237230301, 0.07374018430709839, -0.019044239073991776, 0.03190502151846886, 0.025178762152791023, -0.08873636275529861, 0.06269366294145584, 0.0615239292383194, 0.09854675829410553, 0.0794445052742958, -0.09556002169847488, 0.04676295816898346, 0.06351655721664429, -0.05693136155605316, -0.08278704434633255, 0.03341446444392204, -0.06962814927101135, 0.06204633042216301, 0.06187589094042778], [-0.007458346895873547, 0.021614184603095055, 0.012182128615677357, 0.0003344761789776385, -0.033179666846990585, 0.02788851037621498, -0.004044291563332081, 0.020913077518343925, 0.014553770422935486, 0.03080594539642334, -0.004316628444939852, -0.029627466574311256, 0.0670086070895195, 0.05101438984274864, -0.021587301045656204, -0.02738330513238907, 0.03301255777478218, -0.02384883537888527, 0.048762012273073196, 0.025838054716587067], [-0.01943053863942623, 0.0841875672340393, 0.06325104087591171, -0.012238428927958012, 0.02587215229868889, 0.030081871896982193, -0.07847687602043152, 0.055193107575178146, 0.05378580093383789, 0.08777257800102234, 0.06663776934146881, -0.08463933318853378, 0.047284066677093506, 0.05810794606804848, -0.05064116418361664, -0.0757325068116188, 0.042251672595739365, -0.05950678139925003, 0.057472895830869675, 0.053920526057481766], [-0.0684075877070427, -0.03285547345876694, -0.06737459450960159, -0.029271548613905907, -0.041768621653318405, 0.21410173177719116, 0.07240431755781174, -0.0042123692110180855, 0.07810588926076889, -0.04396053031086922, -0.05533634498715401, 0.01644565910100937, 0.2753728926181793, -0.17892254889011383, 0.011003967374563217, 0.056827954947948456, 0.33931082487106323, -0.0051338644698262215, 0.024425122886896133, 0.013153323903679848], [-0.004904716741293669, 0.11385102570056915, 0.04526031017303467, -0.029073935002088547, 0.10846714675426483, -0.26455238461494446, -0.00853690318763256, 0.023312684148550034, 0.009072703309357166, 0.0454876571893692, 0.07965265214443207, -0.03625350818037987, -0.15960659086704254, 0.032543208450078964, -0.017644481733441353, -0.0001965003029908985, -0.31023451685905457, -0.0721113309264183, 0.36077362298965454, 0.032769039273262024], [-0.015513568185269833, 0.0467672273516655, 0.039285074919462204, -0.013515708968043327, 0.01363007165491581, 0.0220772884786129, -0.044712673872709274, 0.02676980569958687, 0.029372092336416245, 0.042911842465400696, 0.03228752315044403, -0.04041365161538124, 0.035421084612607956, 0.01675860583782196, -0.02556932531297207, -0.025086337700486183, 0.023904213681817055, -0.032986998558044434, 0.0035746509674936533, 0.030629877001047134], [-0.002292133402079344, 0.06863362342119217, 0.04128936305642128, 0.003988905809819698, 0.012271133251488209, 0.012030878104269505, -0.06173688918352127, 0.046136073768138885, 0.039502955973148346, 0.07806455343961716, 0.054171372205019, -0.07484432309865952, 0.04623199254274368, 0.032353732734918594, -0.0408303327858448, -0.05610496178269386, 0.047163814306259155, -0.04613465070724487, 0.04952727258205414, 0.03977232053875923], [-0.00712811853736639, 0.0562838613986969, 0.036334726959466934, -0.022596409544348717, 0.008688194677233696, -0.02531231753528118, -0.07377155870199203, 0.04875080659985542, 0.04684632271528244, 0.0947045087814331, 0.07469021528959274, -0.0884057953953743, 0.17442217469215393, 0.09654488414525986, -0.03064640238881111, -0.07121261954307556, 0.12209131568670273, -0.04663018509745598, 0.29177844524383545, 0.0352073535323143], [-0.0021182617638260126, 0.028122063726186752, 0.01730966567993164, 0.001982227899134159, -0.0004965346306562424, 0.01904170960187912, -0.021511416882276535, 0.006658628582954407, 0.009552105329930782, 0.01765986531972885, 0.01153213158249855, -0.015177838504314423, 0.02005164511501789, 0.03300289437174797, -0.006385309621691704, -0.011644463054835796, 0.012242719531059265, -0.012556251138448715, -0.014708789996802807, 0.010166973806917667], [-0.07175777107477188, 0.2044743001461029, 0.2517754137516022, -0.11593764275312424, 0.1811434030532837, 0.014101005159318447, -0.22328059375286102, 0.06373896449804306, 0.08036381006240845, 0.11490201205015182, 0.21012406051158905, -0.08261396735906601, 0.3080713748931885, -0.047337524592876434, -0.06119675934314728, 0.008962118066847324, -0.15200470387935638, -0.13661156594753265, -0.01955346018075943, 0.12568902969360352], [-0.017263244837522507, 0.05196730047464371, 0.046078991144895554, -0.0166262648999691, 0.034221574664115906, 0.013723540119826794, -0.052396949380636215, 0.02685610018670559, 0.029577016830444336, 0.04312973469495773, 0.0409463569521904, -0.040203358978033066, 0.02174847200512886, 0.0025641475804150105, -0.024613749235868454, -0.019341465085744858, 0.016416385769844055, -0.03561248630285263, -0.011132673360407352, 0.03092891350388527]], "rec.bias_ih_l0": [-0.028248710557818413, 0.1323540061712265, 0.05939026549458504, -0.0042887525632977486, 0.1335684210062027, 0.19882920384407043, 0.06454866379499435, 0.021247558295726776, 0.013797576539218426, 0.07108034938573837, 0.06806599348783493, 0.07014670968055725, -0.7718210816383362, 0.07304863631725311, 0.023934541270136833, 0.03502827510237694, 0.23581771552562714, 0.05828213319182396, 0.03133399412035942, -0.000527561642229557, -0.01618075929582119, 0.1426878124475479, 0.08861362934112549, 0.03479209169745445, 0.1401420533657074, 0.05361558869481087, 0.09143543243408203, 0.031212005764245987, 0.0006994294235482812, 0.0991898775100708, 0.07064610719680786, 0.09427310526371002, 1.1510924100875854, 0.0581812784075737, 0.033554401248693466, 0.06774462759494781, -0.30044636130332947, 0.06425191462039948, 0.35693687200546265, 0.025830866768956184, 0.05009487643837929, 0.08068204671144485, 0.10813765972852707, -0.02909254841506481, -0.08434005826711655, -0.014547145925462246, -0.06118636205792427, 0.014172758907079697, -0.09353296458721161, -0.0006504461052827537, 0.06496423482894897, -0.1098126620054245, 0.14643234014511108, 0.2668206989765167, 0.0056290896609425545, -0.049519605934619904, -0.13425935804843903, -0.04655778780579567, 0.012133004143834114, 0.09025810658931732, -0.02860722504556179, 0.13427333533763885, 0.06152522191405296, -0.005402550101280212, 0.1362442523241043, 0.1399821937084198, 0.06661714613437653, 0.021777840331196785, 0.013975465670228004, 0.07426002621650696, 0.06770241260528564, 0.07229407876729965, -0.7222601771354675, 0.11153056472539902, 0.02440793812274933, 0.035548996180295944, 0.2422044724225998, 0.05878166854381561, -0.03998912498354912, 0.00020129277254454792], "rec.bias_hh_l0": [-0.028248710557818413, 0.1323540061712265, 0.05939026549458504, -0.0042887525632977486, 0.13356764614582062, 0.16416297852993011, 0.06454623490571976, 0.021247558295726776, 0.014187963679432869, 0.07108034938573837, 0.06806599348783493, 0.07014670968055725, -0.7761700749397278, 0.024527058005332947, 0.023934541270136833, 0.03502827510237694, 0.21943490207195282, 0.05828213319182396, -0.13731715083122253, -0.000527561642229557, -0.01618075929582119, 0.1426878124475479, 0.08861362934112549, 0.034792087972164154, 0.14014236629009247, -0.013843894936144352, 0.09143629670143127, 0.031212005764245987, 0.0004978802753612399, 0.0991898775100708, 0.07064610719680786, 0.09427310526371002, 1.1906729936599731, 0.13419109582901, 0.033554401248693466, 0.06774462759494781, -0.2961951196193695, 0.06425191462039948, 0.32167160511016846, 0.025830866768956184, -0.06504028290510178, 0.05693593621253967, 0.02543257549405098, -0.0067663053050637245, 0.023091936483979225, -0.007065226789563894, -0.06342188268899918, 0.018863562494516373, 0.10808070749044418, 0.08412162959575653, -0.005538868717849255, 0.03905342146754265, -0.09922003746032715, 0.07523088902235031, -0.03031938709318638, 0.01275935024023056, -0.012487144209444523, -0.05348672345280647, -0.13712193071842194, -0.01675904355943203, -0.02860722504556179, 0.13427333533763885, 0.06152522191405296, -0.005402550101280212, 0.1362430453300476, 0.1443614810705185, 0.06661765277385712, 0.021777840331196785, 0.013224261812865734, 0.07426002621650696, 0.06770241260528564, 0.07229407876729965, -0.6877790093421936, -0.08182622492313385, 0.02440793812274933, 0.035548996180295944, 0.2500404417514801, 0.05878166854381561, -0.12290238589048386, 0.00020129277254454792], "lin.weight": [[0.06347079575061798, -0.0549556240439415, 0.010549946688115597, 0.07693962007761002, -0.1396433711051941, -0.43848320841789246, 0.09168042242527008, -0.0010713022202253342, -0.1991032212972641, 0.0171669814735651, -0.04939135164022446, -0.005618071649223566, -0.21673446893692017, -0.015375213697552681, -0.0003427430638112128, -0.05245060846209526, -0.7242711782455444, 0.01444486528635025, -0.24237772822380066, 0.025204408913850784]], "lin.bias": [-0.05299381911754608]}}