{"model_data": {"model": "SimpleRNN", "input_size": 2, "skip": 1, "output_size": 1, "unit_type": "LSTM", "num_layers": 1, "hidden_size": 20, "bias_fl": true}, "state_dict": {"rec.weight_ih_l0": [[0.018746962770819664, 0.025446008890867233], [0.06608635932207108, 0.21772705018520355], [0.026902414858341217, 0.15107397735118866], [0.012738917022943497, 0.0773070827126503], [0.0022925948724150658, 0.0012385277077555656], [0.07964421808719635, 0.4073355793952942], [0.0012241663644090295, 0.0076409513130784035], [-0.041827719658613205, -0.08433150500059128], [-0.16556107997894287, 1.57854425907135], [0.0013951672008261085, 0.003286940511316061], [-0.07114889472723007, -0.045253414660692215], [0.00035664800088852644, 0.0002554612001404166], [-0.02304498665034771, 0.5717591643333435], [0.10431769490242004, -0.18418313562870026], [0.0009339626412838697, 0.0001330671802861616], [-0.18037636578083038, -0.7938696146011353], [0.003864448983222246, 0.0680726170539856], [-0.018825050443410873, 0.548900306224823], [0.2574636936187744, -0.8502600789070129], [0.00048663641791790724, -0.0024142139591276646], [0.0769447609782219, -0.1087200865149498], [0.06458286195993423, -0.28957951068878174], [0.014107891358435154, 0.2376900315284729], [0.026371125131845474, 0.0372726134955883], [0.001828149426728487, -0.000214487430639565], [-0.04746204987168312, 0.10408005863428116], [0.00035242459853179753, 0.008619832806289196], [-0.05904197320342064, 0.15171271562576294], [-0.19153466820716858, 0.38487690687179565], [0.0008170705987140536, 0.002922208048403263], [-0.14136308431625366, -0.17941996455192566], [0.0002882961416617036, -0.00027378927916288376], [-0.07537837326526642, 0.13979500532150269], [0.16596689820289612, 0.08399809896945953], [0.0008834493346512318, -0.00044200956472195685], [-0.03423081338405609, 0.9602167010307312], [-0.009116147644817829, 0.07018468528985977], [-0.02097095362842083, 0.23986226320266724], [0.08398960530757904, 1.0573067665100098], [0.0004362691252026707, -0.002513519488275051], [-0.09368332475423813, 0.10783868283033371], [-0.45810624957084656, -0.4653889536857605], [0.11091205477714539, -0.14923398196697235], [0.02953023463487625, -0.031381648033857346], [0.0041503398679196835, 0.02229311317205429], [-0.5368611812591553, -0.058078620582818985], [-0.014406691305339336, -0.009745454415678978], [-0.14926984906196594, 0.20278558135032654], [-3.3058717250823975, 0.014553248882293701], [0.023820655420422554, -0.013928962871432304], [0.22284115850925446, 0.2595410943031311], [-0.019332822412252426, -0.002241371897980571], [-2.1370248794555664, 0.06740640848875046], [-0.10720400512218475, -0.5149579048156738], [-0.0018810635665431619, -0.01090100035071373], [0.19500140845775604, 0.07774341106414795], [-0.0743541568517685, 0.18379884958267212], [-1.221426010131836, 0.07828664034605026], [0.8436769843101501, 0.059612371027469635], [0.007053033914417028, -0.0005390302976593375], [0.01863786019384861, -0.16429124772548676], [0.17776700854301453, -0.20568782091140747], [0.05852849781513214, 0.17756791412830353], [0.012272888794541359, 0.0799160972237587], [0.002370992908254266, 0.0011977209942415357], [0.166310116648674, 0.39899536967277527], [0.0010494935559108853, 0.007870089262723923], [-0.02380012534558773, 0.08859552443027496], [-0.023860478773713112, 0.09992032498121262], [0.0016626946162432432, 0.0032830853015184402], [-0.13031205534934998, -0.028057483956217766], [0.00045008095912635326, 0.00026223412714898586], [-0.04525080323219299, 0.6189314126968384], [0.17444877326488495, 0.01780325174331665], [0.0009111263789236546, 0.00013304808817338198], [-0.012711306102573872, 0.254007488489151], [0.010275990702211857, 0.07687613368034363], [-0.054912108927965164, 0.5902915000915527], [0.043945979326963425, 0.4391534924507141], [0.00042201572796329856, -0.002431965433061123]], "rec.weight_hh_l0": [[-0.022536713629961014, 0.060047078877687454, 0.022725744172930717, 0.03328349441289902, -0.00264729093760252, 0.07518452405929565, -0.029295479878783226, 0.006775733549147844, 0.05283713340759277, 0.0029355152510106564, 0.0009873900562524796, 1.1623095815593842e-05, -0.03792746365070343, 0.07044237852096558, -0.00026678177528083324, -0.05724964290857315, -0.003329863306134939, -0.016079740598797798, -0.04066449776291847, 0.008139705285429955], [-0.1325046271085739, 0.005486596841365099, -0.0063202776946127415, 0.028317051008343697, -0.013417980633676052, 0.3254140615463257, -0.036576997488737106, -0.025240426883101463, -0.0879218578338623, -0.002189779654145241, 0.006401739548891783, 0.0022678356617689133, -0.111443430185318, 0.10188817232847214, 0.0024018206167966127, -0.18110008537769318, -0.027281975373625755, -0.24879485368728638, 0.030335811898112297, 0.011495462618768215], [-0.03704647719860077, 0.085642971098423, 0.030795227736234665, -0.03445619344711304, -0.0023237329442054033, -0.009512368589639664, -0.017475444823503494, 0.04989165812730789, 0.010756525211036205, -0.005165283102542162, 0.03812621906399727, 0.0011615415569394827, 0.0361885204911232, -0.0866968035697937, -0.001201155479066074, -0.06850374490022659, -0.032859791070222855, -0.0729122906923294, -0.10426829755306244, 0.0030173452105373144], [-0.01140680629760027, 0.01727057620882988, 0.011286281980574131, -0.004968877881765366, -0.001100404653698206, 0.04331761598587036, -0.00621499540284276, 0.021712619811296463, 0.013177945278584957, -0.0008166799088940024, 0.005491201300173998, 0.0017647171625867486, 0.0033465248998254538, -0.00848257727921009, -0.0002441108226776123, -0.05307367444038391, -0.002438323339447379, -0.01582738757133484, -0.0134079335257411, 0.0015069146174937487], [0.0007423784700222313, 0.00032684250618331134, 0.004014925099909306, -1.5293675460270606e-05, 9.512646647635847e-05, -0.0005091595812700689, 1.347058787359856e-05, 0.003252681577578187, -0.0008657124126330018, 0.0002009363961406052, 0.0009864987805485725, -0.00019616844656411558, -0.0013943107333034277, 0.00023383405641652644, -7.389984966721386e-05, -0.004407140426337719, 5.556159158004448e-05, -0.002458833623677492, -0.0005838426295667887, -6.609666161239147e-05], [-0.11367722600698471, -0.2060384750366211, -0.043474745005369186, -0.0028362269513309, -0.004878338426351547, 0.21010315418243408, -0.016447583213448524, -0.056422412395477295, -0.2122218757867813, 0.002439148025587201, 0.03626581281423569, -0.0016330499202013016, -0.028895365074276924, -0.09009756147861481, 0.001480116043239832, -0.013871990144252777, -0.01335231214761734, -0.25510427355766296, 0.027019867673516273, 0.007087385281920433], [-0.013195202685892582, 0.021971210837364197, -0.0004690632049459964, -0.0014054824132472277, 0.0004117836942896247, 0.023996422067284584, -0.0006907195784151554, 0.0020609479397535324, -0.0020082637201994658, 0.00010101954831043258, -0.003285170067101717, -0.00015724803961347789, -0.0025668253656476736, 0.02679215744137764, -0.0007227114401757717, -0.011553606949746609, -0.001134573481976986, -0.022800536826252937, -0.002775161527097225, -0.0005162925226613879], [0.1121707633137703, 0.12719585001468658, 0.03999820351600647, 0.01990032009780407, -0.0020790097769349813, 0.11557738482952118, 0.00448329234495759, 0.0197626780718565, 0.1328972429037094, -0.0014031976461410522, -0.025378212332725525, 0.004078748170286417, -0.04504505917429924, 0.12791846692562103, 0.0016396245919167995, -0.01744951494038105, 0.006163341924548149, 0.07953929901123047, 0.07154737412929535, -0.0019318124977871776], [0.6464062929153442, -1.1340909004211426, -0.26552614569664, -0.12240215390920639, 0.07574450224637985, 0.30422577261924744, 0.008977563120424747, 0.19954454898834229, 0.3600655794143677, 0.03297029063105583, 0.10945220291614532, -0.027248764410614967, 0.606395423412323, -0.9128264784812927, -0.009474880062043667, -0.129253551363945, 0.2501472532749176, 0.8618528842926025, 0.12460260838270187, -0.01988508738577366], [-0.0009753155754879117, -0.0011045880382880569, 0.0018442269647493958, -0.000396476942114532, 0.00016468853573314846, 0.002004532376304269, 0.00010609461605781689, 0.0006840813439339399, -0.0014754229923710227, 0.00017737496818881482, 0.0011117053218185902, -0.00022660601825919002, -0.0006134991417638958, 0.000834441336337477, -0.00026068079750984907, -0.0028908096719533205, -3.0527793569490314e-05, -0.0038256216794252396, 0.0002471021725796163, -0.0002168557548429817], [-0.04277428239583969, 0.2097986340522766, -0.047106292098760605, -0.001997211715206504, -0.014425468631088734, 0.10842268913984299, -0.025315525010228157, -0.0660218819975853, 0.05756065249443054, -0.006171487737447023, -0.09947137534618378, 0.005151663441210985, 0.024862803518772125, 0.2069232314825058, -0.0011384959798306227, -0.05112486705183983, -0.03286270052194595, -0.048772431910037994, -0.06956131011247635, 0.00873070489615202], [-0.00011443535186117515, -0.0005300386692397296, 0.0007797289290465415, 0.000320886611007154, 0.00020362919894978404, 0.0007353790570050478, 0.0002714607398957014, 0.000492342805955559, 0.0001832271518651396, 0.00026196090038865805, 0.0006284491973929107, -0.0002418385265627876, -0.0001095189290936105, 3.499869126244448e-05, -9.094839333556592e-05, -0.00021649246627930552, 0.00014227624342311174, -0.0015748164150863886, 0.00013417961599770933, -0.00026743835769593716], [0.005821039900183678, 0.10249066352844238, -0.10308580100536346, -0.0206469614058733, 0.0016117837512865663, 0.37056195735931396, -0.024889683350920677, 0.05684748664498329, 0.044344719499349594, 0.0008317424217239022, 0.0824093446135521, -0.0007251934730447829, 0.025273051112890244, -0.18640941381454468, 0.000446031684987247, -0.12326765060424805, 0.01231062039732933, -0.13362433016300201, -0.024557480588555336, 0.004371745511889458], [0.08153112232685089, -0.21363021433353424, 0.08838606625795364, -0.0063023618422448635, 0.0005580491852015257, -0.08448731899261475, 0.0021723471581935883, 0.0734885185956955, 0.0977151170372963, 0.00933926459401846, -0.10240674763917923, -0.004793150816112757, -0.027437401935458183, 0.07240511476993561, 0.00138194824103266, 0.0014923624694347382, -0.007111143320798874, -0.04612703621387482, 0.03123166784644127, 0.002353585558012128], [0.00012838796828873456, 0.0002655561547726393, 0.0001237873366335407, 0.0007259384146891534, -0.0001653525250731036, -1.3283975022204686e-05, 1.0130896043847315e-05, 4.275179890100844e-05, 0.00018350142636336386, 1.2360508662823122e-05, 3.29522299580276e-05, 2.0568346371874213e-05, -0.0009261628147214651, 0.0002849471347872168, 2.83945682895137e-05, 0.00017810436838772148, -0.0001411733974236995, 0.0004439827462192625, -0.00017515795479994267, 6.0441270761657506e-05], [0.21176059544086456, -0.24209779500961304, 0.007413767743855715, 0.08001503348350525, 0.010781112127006054, -0.2960319519042969, 0.02817349135875702, 0.0876513123512268, 0.052714619785547256, 0.011091641150414944, -0.03763977810740471, -0.0010151946917176247, -0.02252063900232315, -0.11447449028491974, 0.006241408176720142, 0.1625763177871704, -0.002144590951502323, 0.09779684245586395, 0.3154597580432892, -0.017785074189305305], [0.00813206098973751, -0.002694426104426384, 0.024818643927574158, 0.024519218131899834, 0.004982881713658571, 0.057087432593107224, 9.626982318877708e-06, 0.02090650610625744, -0.01388152688741684, 0.005414022598415613, -0.019886203110218048, -0.0022017306182533503, -0.047470901161432266, -0.030044380575418472, 0.0012707326095551252, -0.037020664662122726, 0.03396069258451462, 0.07508485019207001, 0.013593785464763641, -0.0007303686579689384], [0.10739481449127197, 0.12486904859542847, -0.12419357895851135, -0.019079411402344704, 0.012010414153337479, 0.29940950870513916, -0.010361075401306152, 0.10736396908760071, 0.1971551477909088, 0.005222986452281475, 0.14980801939964294, -0.0032882713712751865, 0.056395500898361206, -0.22495636343955994, 0.0005863768164999783, -0.12608644366264343, 0.03347145766019821, -0.060024477541446686, 0.012225527316331863, -0.0018476495752111077], [0.2815709114074707, -0.3535628616809845, 0.01919712871313095, 0.02239963971078396, 0.008898765780031681, -0.7953103184700012, -0.03521128371357918, 0.016296599060297012, -0.022194022312760353, 0.0024414826184511185, -0.14177840948104858, -0.003882666351273656, -0.03262966498732567, -0.14292265474796295, -0.0011174390092492104, -0.167251318693161, 0.0499817356467247, 0.8787141442298889, -0.043623872101306915, 0.01645740121603012], [0.0005377847119234502, 0.00045426844735629857, 0.0016295128734782338, -0.0002761680807452649, 0.0001418584433849901, 0.0016218135133385658, 0.0002088154578814283, 0.001358392764814198, 0.00043201204971410334, 0.00013626483269035816, 9.528705413686112e-05, -0.00013623067934531718, 1.6966170733212493e-05, 0.0024874424561858177, -0.0002723319921642542, -0.0006230038707144558, 0.00019499793415889144, -0.0007309016073122621, 2.6268910460203188e-06, -9.637510811444372e-05], [-0.0013320500729605556, -0.016536910086870193, 0.15510879456996918, 0.05348490551114082, 0.004019591491669416, 0.033918146044015884, -0.02876502275466919, 0.08658468723297119, -0.01624489016830921, 0.01063574105501175, -0.021756300702691078, -0.0044286432676017284, -0.11743801087141037, 0.14792130887508392, 0.0005418788641691208, -0.11364920437335968, 0.017796337604522705, 0.04866151884198189, -0.08445411920547485, 0.008451966568827629], [-0.11691015213727951, -0.027270492166280746, 0.10302514582872391, 0.05382790043950081, -0.016551615670323372, -0.11811557412147522, -0.016498446464538574, -0.0074204676784574986, -0.10251034051179886, -0.003450071206316352, -0.1516544669866562, 0.003720690496265888, -0.10019031167030334, 0.23829148709774017, 0.0032301503233611584, -0.10347402840852737, -0.03320949524641037, 0.06590048968791962, 0.06293637305498123, 0.0071658422239124775], [0.00835779681801796, 0.24785077571868896, 0.1314581334590912, -0.05725885182619095, -0.002807469805702567, 0.06794637441635132, -0.02185117080807686, 0.1642027199268341, 0.14862526953220367, -0.009536519646644592, 0.0827757939696312, 0.003309337655082345, 0.08975297212600708, -0.10789476335048676, -0.001113514299504459, -0.11230437457561493, -0.04039390757679939, 0.0022219354286789894, -0.14836126565933228, 0.002402224577963352], [-0.0416765920817852, -0.0015100418822839856, 0.05261842533946037, -0.006274199113249779, -0.0033294029999524355, 0.01965160295367241, -0.006096097640693188, 0.021506497636437416, -0.017290040850639343, -0.0020939866080880165, -0.0002980385033879429, 0.002251350088045001, -0.0019284106092527509, 0.015609011985361576, -0.00028419896261766553, -0.05584234744310379, -0.01050199382007122, -0.03958229720592499, -0.018772518262267113, 0.0021421853452920914], [0.001611995743587613, 0.0005652353283949196, 0.004788530524820089, -2.6026827981695533e-05, 0.00017028392176143825, -0.0014219561126083136, 0.0001722698798403144, 0.004054822959005833, -0.0003311762120574713, 0.00021830556215718389, 0.00010145430860575289, -0.000210880083614029, -0.0008237585425376892, 0.00027486454928293824, -8.108646579785272e-05, -0.004616370890289545, 0.0004699080600403249, -0.000428685249062255, -0.0010212843772023916, -0.0001137724393629469], [-0.012597810477018356, -0.008636130020022392, -0.14708422124385834, -0.02222577854990959, 0.0027667563408613205, 0.29762446880340576, 0.015419979579746723, -0.13046546280384064, 0.07676316797733307, 0.002397100906819105, -0.035823091864585876, -0.003734725760295987, 0.21996931731700897, -0.06734912842512131, -0.0009171897545456886, 0.042291417717933655, 0.00800304114818573, 0.025755878537893295, 0.07353216409683228, -0.0015529375523328781], [-0.015684911981225014, 0.02544591575860977, -0.002012315671890974, -0.0018479992868378758, 0.00039129008655436337, 0.026421774178743362, -0.0016428338130936027, 0.0010817028814926744, -0.0018162738997489214, 9.366752055939287e-05, -0.0057763769291341305, -0.00018127060320694, -0.0030586165376007557, 0.030354205518960953, -0.0007699523121118546, -0.01428785640746355, -0.0017354654846712947, -0.024968808516860008, -0.004121226724237204, -0.0006014395039528608], [0.16324564814567566, 0.19336628913879395, 0.19781893491744995, 0.0003560293698683381, -0.001956937136128545, 0.3109818696975708, 0.004004199057817459, 0.1252976655960083, 0.2181418091058731, -0.0027437089011073112, -0.05165930837392807, 0.0055405511520802975, -0.011682153679430485, 0.19946499168872833, 0.0015385705046355724, -0.16933698952198029, 0.031128594651818275, 0.13549329340457916, 0.07841892540454865, -0.0013082065852358937], [0.15943707525730133, -0.4851903021335602, 0.07513516396284103, -0.12436294555664062, 0.02128000371158123, 0.2848883271217346, 0.010199776850640774, 0.02662634290754795, 0.38478443026542664, 0.008842464536428452, 0.1804402619600296, -0.008660574443638325, 0.5618807673454285, -0.47631531953811646, -0.0033531251829117537, -0.37561795115470886, -0.05333391949534416, -0.06861437112092972, -0.16094516217708588, -0.00811734702438116], [-0.0005167729104869068, -0.00035903556272387505, 0.0018948591314256191, -0.0008141551516018808, 0.00020368870173115283, 0.0017346407985314727, 0.00012193911243230104, 0.0011377957416698337, -0.0011444971896708012, 0.00015100296877790242, 0.0006185752572491765, -0.00021529140940401703, -6.805149496358354e-06, 0.0008032650221139193, -0.0002496028319001198, -0.003111323807388544, 0.0001147827715612948, -0.0030390997417271137, 0.0002551788347773254, -0.00022280297707766294], [0.020731931552290916, 0.28403621912002563, -0.10841421782970428, 0.0058295875787734985, -0.01372280903160572, 0.051008373498916626, -0.02200617827475071, -0.08931869268417358, 0.12591733038425446, -0.005365767981857061, -0.18942014873027802, 0.005107882898300886, 0.05022738128900528, 0.28761962056159973, -0.0022281857673078775, -0.008684881031513214, -0.01645035296678543, 0.13605374097824097, -0.07791315764188766, 0.00847493577748537], [0.00015269609866663814, -0.00035642157308757305, 0.0008752983412705362, 0.0005539077101275325, 0.0002197489229729399, 0.00042076740646734834, 0.000353615905623883, 0.0006141624180600047, 0.0003017223789356649, 0.0002562495938036591, 0.0003721748071257025, -0.00022819809964857996, -9.071605745702982e-05, 4.574777995003387e-05, -7.464765076292679e-05, -3.751218400793732e-06, 0.00023099902318790555, -0.0011596824042499065, 0.00011618518328759819, -0.00030404989956878126], [-0.01220362726598978, 0.05172552913427353, -0.0762803703546524, -0.016809893772006035, 0.007579755038022995, 0.12161674350500107, 3.671118975034915e-05, -0.008359603583812714, -0.03432166203856468, 0.0009969526436179876, 0.07972366362810135, -0.00207139877602458, 0.02164941467344761, -0.29636281728744507, -0.00010369911615271121, 0.1441676914691925, 0.017478760331869125, -0.025421811267733574, -0.0025719604454934597, -0.004577722866088152], [0.10559675842523575, -0.2728770971298218, 0.0050048562698066235, 0.018143054097890854, -0.002133952919393778, 0.12296627461910248, -0.009011762216687202, 0.05682521313428879, 0.17255614697933197, 0.017850985750555992, -0.12503346800804138, -0.008069748058915138, -0.09250069409608841, 0.19436335563659668, 0.002531444188207388, 0.05084117501974106, -0.0042146542109549046, -0.11413629353046417, 0.09453235566616058, 0.0075788008980453014], [-1.5512245227000676e-05, 0.0001693756494205445, 0.00031828205101192, 0.0006523202755488455, -0.00013736540859099478, -0.0003030349616892636, 1.203786268888507e-05, -6.003832459100522e-05, 0.0001549423614051193, 4.605869253282435e-05, -2.855753518815618e-05, -4.643737611331744e-06, -0.0007609045132994652, 0.00045091239735484123, 2.2307291146717034e-05, 0.0002652107796166092, -0.00012416286335792392, 0.00045065395534038544, -0.0001681307767285034, 5.4847594583407044e-05], [-0.10752718895673752, 0.09502364695072174, 0.33987224102020264, 0.03910379111766815, -0.03426743671298027, 0.3873121738433838, 0.014057036489248276, 0.08564263582229614, -0.1889013648033142, -0.016150660812854767, 0.03983306884765625, 0.016421573236584663, -0.10701581090688705, 0.44175413250923157, 0.0033402235712856054, -0.2924634516239166, 0.0010708678746595979, -0.18905086815357208, 0.20446789264678955, -0.00231199455447495], [0.037722114473581314, -0.004035685211420059, 0.04868672415614128, 0.02875153347849846, 0.010919187217950821, 0.022820226848125458, 0.00634088646620512, 0.058474522083997726, 0.0024273369926959276, 0.008356139995157719, -0.033515814691782, -0.003845742205157876, -0.037540026009082794, -0.04832706227898598, 0.0012310974998399615, -0.057380132377147675, 0.05916370823979378, 0.174743190407753, 0.01793803460896015, -0.003283535363152623], [0.12416086345911026, 0.011388995684683323, 0.008823150768876076, 0.02295532077550888, 0.013236595317721367, -0.046715304255485535, -0.00011154817184433341, 0.15492449700832367, 0.13859915733337402, 0.004138448741286993, 0.039856743067502975, -0.0020694273989647627, -0.06248513236641884, -0.056664131581783295, -0.0014021025272086263, -0.15257562696933746, 0.057217974215745926, 0.1214185580611229, -0.08543277531862259, -0.0060968962498009205], [-0.08898618817329407, 0.10793193429708481, -0.28205931186676025, -0.04096001014113426, -0.020412487909197807, 0.22458752989768982, -0.03943664953112602, 0.04912462830543518, 0.2032650262117386, -0.012107591144740582, 0.10133720934391022, 0.00047854112926870584, 0.06931214034557343, 0.5329182744026184, -0.013306897133588791, -0.218680277466774, -0.054922666400671005, -0.3246058225631714, -0.13259416818618774, 0.020370105281472206], [0.000552196754142642, 0.0007274751551449299, 0.0018735021585598588, -0.0002768771373666823, 0.00014782807556912303, 0.0023817417677491903, 0.0002347360859857872, 0.0015221652574837208, 0.0004408142704050988, 0.00013926326937507838, -0.00011255452409386635, -0.00013997206406202167, 7.574971823487431e-05, 0.0030203836504369974, -0.00028198110521771014, -0.0006886495393700898, 0.00026654836256057024, -0.0010323523310944438, -0.00012650337885133922, -0.00010358341387473047], [0.07519787549972534, 0.09487096220254898, -0.08807381987571716, 0.04179565981030464, 0.010696218349039555, -0.13114510476589203, 0.03211124986410141, 0.1060808002948761, 0.5806060433387756, 0.006217566784471273, -0.06666745990514755, 0.00318800937384367, 0.5257329344749451, -0.09259702265262604, 0.010459248907864094, 0.05832467973232269, 0.06465387344360352, 0.2957839071750641, 0.19162404537200928, -0.011736043728888035], [-0.3911527395248413, -0.11320696026086807, 0.011892158538103104, 0.0989929735660553, -0.04153623804450035, 0.4270690083503723, -0.009203122928738594, -0.09146177023649216, 1.0471936464309692, -0.003439788706600666, -0.021773384883999825, 0.01507151685655117, 1.0247776508331299, 0.3420737087726593, 0.014836813323199749, 0.03408467024564743, -0.15963615477085114, 0.41751062870025635, 0.17218035459518433, 0.009318292140960693], [-0.11230406910181046, -0.21190252900123596, 0.3996736705303192, -0.038789670914411545, 0.0008208777871914208, -0.05720632150769234, 0.024032004177570343, 0.3007286787033081, 0.049711596220731735, -0.01137007586658001, -0.05715595558285713, 0.00971475150436163, -0.2002040445804596, -0.01924232952296734, 0.002717292867600918, -0.6207693815231323, 0.054639846086502075, -0.0009122029296122491, -0.22292698919773102, -0.009976043365895748], [0.08353430032730103, -0.04944988712668419, -0.07901951670646667, 0.07565932720899582, -0.00607422785833478, -0.016623755916953087, 0.0028498151805251837, -0.0718982070684433, -0.015337640419602394, 0.0021296197082847357, -0.017720304429531097, 0.0025824783369898796, -0.4075099527835846, 0.03610803559422493, 0.0012332206824794412, -0.0068224468268454075, 0.01088283583521843, 0.11886613816022873, 0.010224021039903164, 0.0026936682406812906], [0.02211771160364151, -0.06685782968997955, 0.0017629581270739436, 0.013367400504648685, 0.0002989050408359617, 0.004866491537541151, 0.021023806184530258, -0.012548936530947685, 0.0518021285533905, 0.001207481138408184, 0.02107451669871807, 0.000351241062162444, 0.03246986120939255, -0.050159431993961334, 0.001226173946633935, -0.035475585609674454, 0.021313153207302094, 0.049609873443841934, 0.007365641184151173, -0.0033566083293408155], [-0.3286250829696655, -0.012329312041401863, 0.08160257339477539, 0.02761710435152054, -0.0034882421605288982, 0.350984662771225, 0.0028136696200817823, -0.41701647639274597, 1.0848480463027954, 0.014045577496290207, 0.007029758300632238, -0.007378130219876766, 1.016120195388794, 0.48629096150398254, -0.013829100877046585, -0.18377064168453217, 0.05247785151004791, 0.30044084787368774, 0.029883434996008873, 0.005426838528364897], [0.037000540643930435, -0.03459998592734337, 0.024390753358602524, -0.015922317281365395, 0.02000235579907894, -0.024516023695468903, 0.030911240726709366, 0.02443254180252552, 0.020560532808303833, 0.011846478097140789, 0.029152868315577507, -0.006773530039936304, 0.03418846055865288, -0.03491855412721634, 0.0026456781197339296, 0.014442682266235352, 0.03095613420009613, 0.02826491929590702, 0.041647281497716904, -0.01805495098233223], [-0.008211825974285603, 0.18237657845020294, 0.2656920254230499, -0.15444862842559814, -0.007755796425044537, -0.10218284279108047, -0.003387591801583767, 0.34816113114356995, 0.25311043858528137, -0.03492388129234314, 0.08677113801240921, 0.017681192606687546, 0.045771315693855286, -0.09408688545227051, -0.01582290232181549, -0.10607629269361496, -0.04342586547136307, -0.009124841541051865, -0.5086713433265686, -0.0005660554161295295], [-0.11617030948400497, -0.42432597279548645, 0.053080104291439056, -0.05803490802645683, -0.017705969512462616, 0.21426542103290558, -0.023824036121368408, -0.017172690480947495, 0.2737308740615845, -0.026297759264707565, 0.24844089150428772, 0.005662643816322088, 0.4789266288280487, 0.2288055419921875, 0.00020769306865986437, -0.02272452600300312, -0.25916269421577454, 0.25194185972213745, -0.7099446654319763, 0.006438062060624361], [0.014688954688608646, -0.090452641248703, -0.006458105053752661, 0.027529574930667877, -0.0005509482580237091, 0.014400886371731758, 0.010999449528753757, -0.027147343382239342, 0.05121275782585144, 0.0027554002590477467, 0.01558609027415514, 8.731057459954172e-05, -0.018879495561122894, -0.022353192791342735, 0.0011290257098153234, -0.011625416576862335, 0.009299258701503277, 0.04432667791843414, -0.001413410878740251, 0.0003625689132604748], [0.11456488817930222, 0.1781097799539566, 0.15649636089801788, -0.07159102708101273, 0.04105592519044876, -0.13241708278656006, 0.033605191856622696, -0.16845782101154327, 0.1522093266248703, 0.04382040351629257, 0.3239757716655731, -0.038814179599285126, -0.5630478858947754, -0.24350446462631226, -0.012574620544910431, -0.025751888751983643, 0.003959086257964373, -0.130712628364563, -0.16193750500679016, -0.016078414395451546], [-0.002621013903990388, 0.05117568001151085, 0.0015868007903918624, -0.0177766066044569, -0.0005526063614524901, -0.003289774525910616, -0.004591696429997683, 0.02184152603149414, -0.03007863648235798, -0.0025145767722278833, -0.009381660260260105, 0.00033330172300338745, -0.014708769507706165, 0.013115976005792618, -0.0004791125829797238, 0.010541725903749466, -0.006219159811735153, -0.02220785804092884, 0.010754860937595367, -0.00029983557760715485], [-0.5048267841339111, -0.3517933487892151, 0.2865854799747467, 0.30534616112709045, 0.009743339382112026, -0.330679714679718, 0.032309189438819885, -0.16902436316013336, 0.5684553384780884, 0.02458183281123638, 0.6815366744995117, 7.628278399351984e-05, -0.050880443304777145, -0.0767570361495018, 0.02484544739127159, -0.03188283368945122, -0.25096291303634644, -0.18286091089248657, -0.2465388923883438, -0.022075369954109192], [-0.007157578133046627, 0.1749834418296814, 0.1454511284828186, 0.0491642951965332, -0.00148877059109509, -0.18375557661056519, -0.009487261064350605, -0.2726570665836334, 0.09988045692443848, 0.015819845721125603, -0.05723128467798233, -0.003439428983256221, -0.15150754153728485, 0.31341642141342163, 0.0012792391935363412, -0.03956100344657898, -0.015816645696759224, 0.021510383114218712, -0.18160098791122437, 0.007315600756555796], [0.010286183096468449, 0.0011753517901524901, 0.002506356919184327, -0.0025478266179561615, 0.0007891975110396743, 0.009421300143003464, 0.0017075868090614676, 0.0009832937503233552, -0.011367324739694595, 0.000296074606012553, 0.0017397113842889667, -0.00019251482444815338, -0.038173235952854156, -0.012513660825788975, -0.000489444937556982, 0.0036954721435904503, -0.0037771398201584816, 0.004067249596118927, 0.005566221661865711, -0.0008353988523595035], [-0.14614129066467285, -0.21979917585849762, 0.05964955687522888, -0.0022480650804936886, -0.021019717678427696, 0.1322786957025528, -0.030659865587949753, 0.0030641646590083838, -0.42074069380760193, 0.011236799880862236, -0.0520070418715477, -0.005061415024101734, 0.24258051812648773, 0.12534363567829132, 0.0031019621528685093, 0.5047473311424255, -0.0801093578338623, 0.1359492391347885, -0.1398613154888153, 0.016363566741347313], [-0.0017643189057707787, -0.24151650071144104, -0.02260643243789673, 0.002930950839072466, -0.009756790474057198, 0.11272549629211426, 0.019351370632648468, 0.1096000224351883, 0.02877519279718399, -0.025711996480822563, -0.039663419127464294, 0.02106965333223343, 0.20089131593704224, 0.15988995134830475, -0.002675083000212908, -0.04349658265709877, 0.06648480147123337, 0.23627768456935883, 0.10770735889673233, -0.0075544510036706924], [0.004259286914020777, -0.11806852370500565, 0.17075303196907043, -0.009324073791503906, -0.022621041163802147, -0.30780521035194397, 0.012320670299232006, 0.029715435579419136, 0.6925500631332397, -0.016508495435118675, 0.2714973986148834, 0.012734419666230679, 1.2749942541122437, 0.0259457528591156, -0.007226284593343735, 0.09493162482976913, -0.05089190974831581, 0.5873695611953735, 0.2181909829378128, -0.0009687013807706535], [0.05226365849375725, -0.08802994340658188, 0.1342180222272873, -0.014429384842514992, -0.01150586362928152, -0.05785521864891052, 0.024281775578856468, -0.2032090723514557, 0.3475548028945923, -0.029980584979057312, 0.22533342242240906, 0.01363061461597681, 0.0883418545126915, 0.0359758622944355, -0.0038425885140895844, 0.07983556389808655, -0.1573585718870163, -0.05009547993540764, 0.5506343245506287, -0.011936201713979244], [-0.01749211549758911, 0.008626568131148815, -0.006580950692296028, 0.007565672509372234, -0.0044800108298659325, 0.01054243091493845, -0.02195918560028076, -0.008692195639014244, -0.012997999787330627, -0.0007975788903422654, -0.017466435208916664, -0.0004256377578713, -0.010394010692834854, 0.02337033487856388, -0.0015778983943164349, -0.0001621759292902425, -0.01227449532598257, -0.012672366574406624, -0.019505776464939117, 0.006394154392182827], [-0.052069149911403656, 0.08464250713586807, 0.08457107096910477, 0.043423160910606384, -0.008027679286897182, 0.08856910467147827, -0.0339554026722908, 0.010748343542218208, 0.10751726478338242, 0.003036182839423418, 0.025485672056674957, 0.0005114396335557103, -0.031378015875816345, 0.17241843044757843, -6.505614146590233e-05, -0.06239240616559982, -0.0221706535667181, 0.016888488084077835, -0.10158489644527435, 0.012064734473824501], [-0.2274869978427887, -0.11317592859268188, 0.1762903481721878, 0.09463080763816833, -0.014967531897127628, 0.42433151602745056, -0.04096890613436699, -0.017114870250225067, -0.19001504778862, 0.0027041202411055565, -0.01583382673561573, 0.0026026766281574965, -0.27002784609794617, 0.20840369164943695, 0.008198142051696777, -0.4849906265735626, -0.02603772282600403, -0.25666671991348267, 0.08308526873588562, 0.015260801650583744], [0.032978355884552, 0.1361723393201828, 0.11200307309627533, -0.0080949692055583, 0.0006550526595674455, -0.16212093830108643, -0.01884620636701584, 0.1773381233215332, 0.08635510504245758, -0.0038387267850339413, 0.06471672654151917, 0.0015455902321264148, 0.050201185047626495, -0.043970879167318344, -0.0005780728533864021, -0.10784247517585754, -0.006052673328667879, 0.10942219197750092, -0.1587999314069748, 0.0015985416248440742], [-0.007404785603284836, 0.02270076982676983, 0.009825332090258598, -0.006514576729387045, -0.0009822361171245575, 0.038686204701662064, -0.006152098998427391, 0.02196117863059044, 0.015431691892445087, -0.0004139344091527164, 0.002708984771743417, 0.001508253626525402, 0.006669406779110432, -0.010408265516161919, 0.0003023986064363271, -0.05330239608883858, -0.0017804510425776243, 0.002389519941061735, -0.012445845641195774, 0.0014990242198109627], [0.0002876584476325661, 0.00042298424523323774, 0.004288252908736467, 1.9392093236092478e-05, 7.755513797746971e-05, -0.0006272817263379693, 3.499486410873942e-06, 0.0031699829269200563, -0.0015904726460576057, 0.00019407783111091703, 0.0017077864613384008, -0.00019274349324405193, -0.001980723813176155, 0.0002108927583321929, -7.099690265022218e-05, -0.004449736326932907, -0.00014911717153154314, -0.0025998796336352825, -0.0005524088628590107, -6.500560994027182e-05], [0.02565593831241131, -0.04477199912071228, -0.10224734991788864, 0.0062611461617052555, -0.005374624393880367, 0.2596757411956787, 0.010586190968751907, -0.017062146216630936, -0.13878466188907623, 0.003251774236559868, -0.001651704078540206, -0.0011783081572502851, -0.032034434378147125, -0.06320622563362122, 0.004462848883122206, 0.033472511917352676, -0.019269706681370735, -0.11243004351854324, -0.004052130971103907, 0.0016651598270982504], [-0.013778536580502987, 0.021638566628098488, -0.001251243520528078, -0.001269058440811932, 0.0003663345123641193, 0.02473459765315056, -0.0008171902736648917, 0.00205576466396451, -0.003961492795497179, 4.973928298568353e-05, -0.0022197882644832134, -0.00012213426816742867, -0.005565650761127472, 0.02728884667158127, -0.0006431923829950392, -0.011941798031330109, -0.0014186151092872024, -0.022986970841884613, -0.00274075660854578, -0.0005328378756530583], [0.090634785592556, 0.10504850745201111, 0.15626384317874908, 0.016841769218444824, 0.0006433906382881105, 0.21886633336544037, -0.0024679042398929596, 0.11165744811296463, 0.1548602432012558, 0.0017790725687518716, -0.000961765821557492, 0.002162883523851633, -0.012067973613739014, 0.08696971833705902, 0.002074550138786435, -0.12171334773302078, 0.033352553844451904, 0.056369975209236145, 0.009616571478545666, 0.0002097327815135941], [-0.04032127186655998, -0.3496861457824707, -0.32123616337776184, -0.05072218179702759, -0.005202316213399172, 0.7720022797584534, -0.0300932377576828, -0.06980130821466446, -0.4169335961341858, 0.0005080627161078155, -0.262386292219162, -5.762825458077714e-05, -0.3326228857040405, -0.016396190971136093, -0.00017415001639164984, -0.1809091717004776, -0.029522238299250603, -1.0036342144012451, -0.17448560893535614, 0.011239488609135151], [-0.001113602425903082, -0.001551203429698944, 0.001998674590140581, -0.00030788019648753107, 0.00015795852232258767, 0.002012477954849601, 9.648069681134075e-05, 0.0006126123480498791, -0.0018722738604992628, 0.00018362280388828367, 0.0014102982822805643, -0.00022543950763065368, -0.0009950816165655851, 0.0007917159236967564, -0.0002463333366904408, -0.0028874275740236044, -0.00010987624409608543, -0.003818571800366044, 0.0002602705208119005, -0.0002111676149070263], [0.001288429368287325, 0.26623010635375977, -0.0613027922809124, -0.0016861292533576488, -0.015715936198830605, 0.13055549561977386, -0.028406208381056786, -0.051748715341091156, 0.07832042872905731, -0.007852551527321339, -0.1475379914045334, 0.0059280721470713615, -0.01582302711904049, 0.24539045989513397, -0.0017735918518155813, -0.06470880657434464, -0.027891701087355614, -0.01082381047308445, -0.09109396487474442, 0.009751677513122559], [-0.00019790917576756328, -0.0005574277602136135, 0.0008444350096397102, 0.000362866761861369, 0.00019995869661215693, 0.0007860993500798941, 0.0002641130122356117, 0.00045225679059512913, -9.23731568036601e-06, 0.000274364254437387, 0.0006719736848026514, -0.0002485868753865361, -9.148272511083633e-05, -3.5450682389637223e-06, -7.67563542467542e-05, -0.00022994575556367636, 0.00010501321230549365, -0.001641800976358354, 0.00014095602091401815, -0.0002614462864585221], [0.02635902538895607, 0.13362954556941986, -0.08615604788064957, -0.035627253353595734, 0.004485548939555883, 0.35521653294563293, -0.02231435663998127, 0.09155763685703278, 0.05304309353232384, -0.0014237958239391446, 0.08900962769985199, -0.00029685470508411527, 0.05688811466097832, -0.26945894956588745, -4.728124258690514e-05, -0.16844825446605682, 0.010172426700592041, -0.14795291423797607, -0.0676918476819992, 0.0028136635664850473], [-0.07088606804609299, 0.009142177179455757, -0.014445376582443714, 0.0436820350587368, -0.014629259705543518, 0.24107497930526733, -0.02932152897119522, -0.0517728328704834, 0.09772764891386032, 0.006730932276695967, -0.015177055262029171, -0.000543152098543942, -0.19651350378990173, 0.24344508349895477, 0.004543031565845013, 0.016537072136998177, -0.0363391675055027, -0.26981639862060547, 0.04161003232002258, 0.01245889998972416], [0.00014555596862919629, 0.0002734494337346405, 0.00012188232358312234, 0.0007741987938061357, -0.0001601296098669991, -1.1035694114980288e-05, 1.3905866580898874e-05, 6.481607852037996e-05, 0.00018641167844180018, 2.5426075808354653e-05, 6.376681267283857e-05, 1.6677891835570335e-05, -0.0009583373903296888, 0.00028535642195492983, 3.1866456993157044e-05, 0.00017752195708453655, -0.00014342750364448875, 0.0004619939427357167, -0.0001588969025760889, 5.827908171340823e-05], [0.017124973237514496, -0.046052247285842896, 0.129909485578537, -0.010723942890763283, -0.006681504659354687, -0.23255661129951477, 0.011364344507455826, 0.029613053426146507, -0.1537703275680542, -0.005482051055878401, 0.01775032840669155, 0.004220348782837391, 0.010371537879109383, -0.05791446566581726, 4.701006764662452e-05, 0.04531466215848923, -0.007275809999555349, -0.17267252504825592, 0.07384268194437027, -0.0015017151599749923], [0.007514529395848513, 0.0055878302082419395, 0.027686050161719322, 0.02650073543190956, 0.004878966137766838, 0.06693383306264877, -0.0010201060213148594, 0.022312140092253685, -0.012014239095151424, 0.005515614058822393, -0.010337727144360542, -0.0022419365122914314, -0.05860014259815216, -0.02847369574010372, 0.0013891153503209352, -0.03958892077207565, 0.03357989713549614, 0.059764984995126724, 0.009052734822034836, -0.0004704702878370881], [0.0632375180721283, 0.11626318097114563, -0.0856597051024437, -0.02272857539355755, 0.013857396319508553, 0.2508832812309265, -0.016199622303247452, 0.11395066976547241, 0.1335035264492035, 0.0052647641859948635, 0.12094870209693909, -0.003939291927963495, 0.1038336381316185, -0.2850787937641144, -0.0008185334736481309, -0.11916695535182953, 0.0546412356197834, 0.0071621243841946125, -0.03640586882829666, -0.0009671577718108892], [-0.01661892607808113, -0.060061290860176086, 0.035044122487306595, -0.04838523641228676, 0.0021452337969094515, -0.10550925880670547, -0.018574832007288933, -0.05840685963630676, -0.053900402039289474, -0.00245718308724463, 0.11857680231332779, -0.00258706696331501, 0.15250089764595032, -0.07776960730552673, -0.005134847480803728, -0.056854650378227234, -0.0177938062697649, -0.24027657508850098, 0.10355044901371002, 0.0017048565205186605], [0.00048670920659787953, 0.00028258166275918484, 0.0015845817979425192, -0.00022717556566931307, 0.00013849997776560485, 0.0017901782412081957, 0.00021230606944300234, 0.0013656939845532179, 0.00010851397382793948, 0.00013814381964039057, 0.00019052512652706355, -0.00013503723312169313, -0.00021003726578783244, 0.002509856829419732, -0.00023465941194444895, -0.0006037527346052229, 0.00019252988568041474, -0.000591654796153307, 1.9709166735992767e-05, -9.624224912840873e-05]], "rec.bias_ih_l0": [0.17553909122943878, 0.46163487434387207, 0.13250632584095, 0.09798872470855713, 0.0015554751735180616, 0.47915956377983093, 0.027165547013282776, -0.014528462663292885, 0.1109314039349556, 0.003384146373718977, 0.19635038077831268, 0.0008223210461437702, 0.5954446792602539, 0.025177426636219025, 0.00012205480015836656, -0.935767650604248, 0.08857478946447372, 0.412242591381073, -0.986958920955658, 0.004330091644078493, 0.17638325691223145, 0.03526204824447632, 0.24107809364795685, 0.06632125377655029, 5.646097270073369e-05, 0.19603431224822998, 0.029137441888451576, 0.26789361238479614, -0.3942016363143921, 0.0027523187454789877, 0.14262352883815765, 0.00033845979487523437, -0.0644400492310524, 0.5453260540962219, -0.0004854555591009557, 1.3801270723342896, 0.07022374123334885, -0.1078953668475151, 1.4312810897827148, 0.00533484760671854, 0.05534972995519638, 0.20643344521522522, 0.010053013451397419, 0.025705227628350258, -0.01889909990131855, 0.4344501495361328, -0.025017619132995605, -0.08979842066764832, -0.10096979141235352, -0.012205617502331734, -3.863320671371184e-05, -0.013486556708812714, 0.14305421710014343, 0.3065137565135956, 0.0057267383672297, -0.08825605362653732, -0.08952756226062775, -0.14928221702575684, 0.05327814817428589, 0.011403587646782398, 0.20249739289283752, 0.288409560918808, 0.1181570515036583, 0.10084544867277145, 0.001304641249589622, 0.4728030562400818, 0.027443813160061836, 0.10049029439687729, 0.3333636522293091, 0.003363201394677162, 0.25923383235931396, 0.0008192474488168955, 0.5757579207420349, 0.44964149594306946, 0.00012164862710051239, 0.2462124079465866, 0.09845399111509323, 0.3114640414714813, 0.3391817510128021, 0.004356143996119499], "rec.bias_hh_l0": [0.18959863483905792, 0.46158257126808167, 0.1325097233057022, 0.09798872470855713, 0.0015554751735180616, 0.47785165905952454, 0.027165547013282776, -0.013023624196648598, 0.13389559090137482, 0.003384146373718977, 0.19635403156280518, 0.0008223210461437702, 0.5954446792602539, 0.024308275431394577, 0.00012205480015836656, -0.9050946831703186, 0.08857349306344986, 0.40817901492118835, -1.0617519617080688, 0.004330091644078493, 0.14419113099575043, 0.032091040164232254, 0.2409369945526123, 0.06632125377655029, 5.646097270073369e-05, 0.1482887864112854, 0.029137441888451576, 0.2680913507938385, -0.42580878734588623, 0.0027523187454789877, 0.1426292508840561, 0.00033845979487523437, -0.06413692981004715, 0.5489147901535034, -0.0004854555591009557, 1.3553847074508667, 0.07022402435541153, -0.13357992470264435, 1.4153788089752197, 0.00533484760671854, -0.07927783578634262, 0.18020035326480865, -0.07925484329462051, 0.03480559587478638, -0.0105311693623662, 0.4391016960144043, -0.025090085342526436, -0.08225537091493607, 0.11639219522476196, 0.028809547424316406, -0.07247631251811981, 0.015161034651100636, -0.08718609064817429, 0.19636020064353943, 0.002225107979029417, 0.020304664969444275, -0.03781620413064957, -0.16083236038684845, -0.0780002772808075, 0.00478330859914422, 0.21528290212154388, 0.2635824978351593, 0.1180843859910965, 0.10084544867277145, 0.001304641249589622, 0.48127231001853943, 0.027443813160061836, 0.10232541710138321, 0.30912071466445923, 0.003363201394677162, 0.25922995805740356, 0.0008192474488168955, 0.5757580995559692, 0.4364156126976013, 0.00012164862710051239, 0.24626372754573822, 0.09845574200153351, 0.32261866331100464, 0.3326268494129181, 0.004356143996119499], "lin.weight": [[0.30355530977249146, -0.08849630504846573, -0.020038852468132973, -0.09388116747140884, 0.04006274417042732, 0.4593386948108673, 0.03754742816090584, 0.08697838336229324, -1.6109733581542969, 0.02551097795367241, -0.20318645238876343, -0.021631836891174316, 0.3465348482131958, 0.15724371373653412, -0.010737763717770576, -0.1409342885017395, 0.06418155878782272, 0.2731959819793701, 0.021644722670316696, -0.013446548953652382]], "lin.bias": [-0.07467105984687805]}}